svm_type one_class
kernel_type rbf
gamma 0.0833333
nr_class 2
total_sv 11
rho 0.5
SV
0.5 1:-54.45 2:-54.18 3:-54.62 4:-54.84 5:-43.67 6:-31.99 7:-44.33 8:-36.36 9:-65.35 10:-70 11:-94.91 12:-71.17 
0.5 1:-50.58 2:-52.41 3:-52.29 4:-53.46 5:90.97 6:-36.08 7:-39.51 8:-35.75 9:77.8 10:-71.78 11:-81.62 12:-70.89 
0.5 1:-52.57 2:-55.12 3:-0.22 4:-55.67 5:-46.04 6:-42.17 7:-0.06 8:-39.51 9:-78.19 10:-74.54 11:-0.11 12:-74.98 
0.5 1:-57.67 2:-53.46 3:-55.67 4:-55.01 5:61.98 6:-41.01 7:-40.4 8:-38.68 9:82.06 10:-72.44 11:-73.54 12:-73.38 
0.5 1:-55.12 2:0.06 3:-53.62 4:-54.23 5:-79.08 6:0.06 7:-48.53 8:-43.33 9:7.3 11:-75.04 12:-76.81 
0.5 1:-55.51 2:-53.46 3:-52.85 4:-55.45 5:34.64 6:-40.35 7:-28.72 8:-42.94 9:0.99 10:-71.5 11:-66.74 12:-76.09 
0.5 1:-52.07 2:-55.06 3:-55.34 5:89.59 6:-36.8 7:-34.64 9:21.69 10:-72.99 11:-77.58 
0.5 1:-31.1 2:0.11 3:-55.01 4:-1.33 5:46.92 6:0.11 7:-45.16 8:0.06 9:-2.27 10:0.11 11:-77.31 12:-0.33 
0.5 1:-54.01 3:-0.06 4:-55.34 5:-48.92 6:0.06 7:0.11 8:-39.95 9:-37.63 12:-73.88 
0.5 1:-53.84 2:-54.84 3:-0.06 4:-54.67 5:55.72 6:-31.1 8:-35.31 9:-79.74 10:-72.6 11:-0.06 12:-71.55 
0.5 1:-53.79 2:-51.85 3:-50.86 4:-54.29 5:-41.45 6:-34.92 7:-0.28 8:-38.13 9:-80.52 10:-80.63 11:0.77 12:-78.58 
